-0.0066616447;-0.023418805;-0.10389073;0.05071237;-0.10196007;0.04511792;-0.024255166;-0.08618544;-0.0035955622;0.081827104;0.10727229;0.14914079;0.11171424;0.04900717;-0.053330615;0.04617293;-0.016620252;-0.1368382;-0.022783231;0.02469625;0.07134128;-0.114738874;-0.07003998;0.080546044;-0.066982135;-0.016528793;0.033133045;0.079676196;-0.018174594;-0.06569772;0.025303634;-0.03449379;-0.11484051;-0.0392;-0.051717773;0.0058072424;0.001822826;-0.022401173;0.053979702;-0.11751067;-0.051463455;0.041556716;-0.03711956;-0.049452364;-0.053252526;0.039231196;-0.057514485;-0.13570903;-0.008840436;0.02832984;-0.03218606;0.01766066;-0.052135322;-0.025848333;0.018358275;0.07988092;-0.02554122;-0.009785502;0.11081984;0.14186975;0.04607126;-0.03827844;0.024988217;-0.015440069;-0.012739971;0.12398916;-0.0052513154;0.06389022;0.065466285;-0.12016047;0.002723587;0.05870111;-0.079466455;-0.060175106;0.03522492;0.060368113;-0.1343488;-0.025571508;0.06110699;-0.083338045;0.0206466;-0.14624704;-0.058261476;0.036334842;0.024616111;0.11851079;0.029388241;-0.029046845;-0.060836595;-0.08209036;0.037516266;-0.10164263;0.012217304;-0.09313996;-0.037800085;-0.046260055;-0.019696936;0.065465435;0.032198127;0.015697276;0.096053705;0.102174476;0.0063940478;-0.036263023;-0.012573271;-0.16056617;-0.123195685;-0.13390692;-0.060949076;-0.018569166;-0.12464169;0.1401549;0.08155141;-0.031689826;0.13691592;0.051409468;-0.039329726;-0.07487183;-0.08532151;-0.07019315;-0.062406916;0.0080493875;-0.09144792;-0.0033469414;-0.13340278;-0.047278732;-0.047783546;0.03301113;0.10347583;0.018870793;-0.028433537;0.05427491;-0.10054512;-0.11858919;-0.15436962;-0.021017771;-0.027880426;-0.19506608;-0.031805895;-0.15971611;-0.09853425;0.041199937;-0.14384551;0.006879699;-0.032653082;0.022802228;-0.061446257;0.06387339;0.00030176007;-0.03827122;0.0025732175;0.015118633;0.021735976;-0.044363845;-0.04970896;0.048058648;-0.014854532;-0.06388781;-0.07372792;0.05948969;-0.034360442;-0.07341456;0.021716103;0.012523874;-0.11157566;0.01911938;0.057119034;-0.11783043;-0.07167779;0.03563995;0.021955535;-0.06053884;0.0016201398;-0.01591637;-0.06834761;-0.059761997;-0.04865683;0.019951934;-0.15341489;-0.06103011;-0.04163927;0.014023546;-0.17756912;0.050260387;-0.06792065;-0.12076874;-0.023648016;0.0052093333;-0.071162306;-0.044439144;0.11283339;0.050343677;-0.0016950786;0.012353477;-0.16225632;-0.16181661;-0.059548773;-0.02297464;0.04984095;0.07382609;0.063808836;-0.0608726;0.07220066;-0.07975484;0.010168781;0.05593954;0.007983348;0.007823327;0.08663018;0.06149872;-0.07519556;0.028003775;-0.036184456;-0.08259576;-0.106695056;0.06756577;-0.023304177;-0.12401787;0.014240245;-0.050742503;-0.10505065;-0.05667768;0.030081555;-0.009302679;-0.08891683;-0.06587041;-0.019275216;-0.10053497;0.03842768;0.07162778;0.0787522;0.037567772;0.07382921;0.1557243;0.13162075;-0.0068127136;-0.051693622;0.025883837;-0.0064204196;-0.046301693;-0.112499945;-0.14135686;-0.10237801;-0.08520364;0.07966487;0.12160294;-0.0043958654;0.110689245;-0.091430165;0.027788728;-0.10374118;-0.11959213;0.0012911152;-0.10250135;-0.025846891;0.035761937;-0.09482794;-0.054037165;0.090165354;0.009278385;-0.051295828;-0.0035522138;0.07131137;0.086282305;0.050462727;0.08995501;0.09641479;-0.08573054;0.10867896;0.037431046;-0.04471345;-0.05118913;-0.101951934;0.011657846;-0.033130966;0.018562596;-0.08942814;0.010332661;-0.10003739;0.10202398;-0.0028321485;0.031182814;0.11377595;-0.01574381;-0.1123651;-0.00064838945;-0.08148415;-0.1285424;-0.040426534;0.1142559;0.000106196094;-0.056838747;-0.016592618;-0.110477276;-0.06697333;-0.100153536;-0.045895305;0.013936608;-0.062458884;0.011319684;-0.010929281;0.0065252623;-0.0056884005;-0.026065325;-0.054937582;-0.07207314;0.024598092;-0.100913316;-0.002934033;0.05346982;-0.12430753;-0.18911175;0.044398684;-0.035175417;0.03117887;0.13897009;0.08644796;-0.03331792;0.030185293;-0.12329608;-0.13964969;-0.06355418;0.026072122;-0.03549373;-0.027949065;0.017032394;-0.11230842;0.16414809;0.10971789;0.05781966;0.015593475;0.06248163;-0.026590014;0.11214366;0.13351741;0.020992631;0.021123271;0.014684545;-0.07529847;-0.088698715;0.025690613;-0.03855961;-0.029992992;-0.09700121;-0.09529679;-0.071128696;0.031755116;0.030704439;-0.07806155;-0.08253428;-0.076021545;0.039238296;0.05160541;0.015424206;0.046978384;0.05035932;-0.08102557;0.09154428;0.020203698;0.028762868;-0.02958877;-0.06834204;-0.05571116;-0.036737118;-0.07977858;-0.09751777;-0.06396963;-0.09750043;0.05447766;-0.07913658;-0.020771997;0.14688152;-0.0922644;0.06540018;0.06702333;-0.12846875;-0.034277253;0.018279606;0.08732988;-0.049041424;-0.0019156677;0.030894483;-0.057738356;-0.039332878;0.04251249;-0.009548625;0.00050353294;-0.07744679;-0.10414464;-0.12547338;-0.012910505;0.073377684;-0.078385636;-0.030475322;-0.02240488;-0.108169004;-0.07345511;-0.11864479;-0.13195013;-0.13176164;-0.020812146;0.0063914107;-0.10410924;-0.0045691114;-0.062279437;-0.048136726;-0.05411407;-0.09794009;-0.14778718;-0.12808003;0.006393841;-0.10817885;-0.05501096;0.027768733;-0.0109628625;-0.022630634;-0.05692535;0.05254082;0.0780151;-0.011818402;0.06728771;-0.0064496705;-0.0030557257;-0.033603102;0.039152082;0.022664541;-0.0031466119;-0.10446607;-0.10121602;-0.06300475;-0.091737024;-0.025203492;0.13354725;0.07971591;-0.08166912;-0.055516407;0.013245042;-0.08021195;0.033336725;0.0674522;0.06457043;-0.017947005;-0.0726002;-0.01353442;-0.040407814;0.049670976;0.031624187;-0.106513806;0.030127272;-0.047342844;-0.06889242;0.05400496;-0.009037877;-0.10460425;-0.0885118;-0.02456374;-0.10403897;0.01061093;0.00096110464;0.021535153;-0.005789875;-0.0004235708;-0.10722473;0.008983338;0.055664945;0.060194902;-0.025297364;-0.0437591;0.013344175;0.033302877;-0.06317967;0.13473941;0.06052899;-0.12773523;0.030821783;-0.067627564;-0.13233826;0.012029675;0.03467027;0.0018899745;0.027977532;-0.008030461;0.03105448;0.0634165;0.0010687443;-0.05264006;-0.095751785;-0.08435802;-0.045165684;0.01622982;0.116858535;0.13020507;0.06445558;0.035117537;-0.047579337;0.055518746;-0.021956732;0.02430808;0.09502431;0.06269677;-0.013122527;0.061597507;-0.00841891;-0.01812755;0.017922977;-0.03724475;-0.101064995;-0.062908046;-0.06561644;-0.082848236;-0.029644862;0.025113767;-0.07292622;-0.031082505;-0.111009054;0.043092933;-0.13197456;-0.03414935;0.057413056;0.08444165;0.03351776;-0.0658654;-0.12947601;-0.05583428;-0.055932514;-0.091158845;0.018000929;-0.05019512;-0.10032163;0.02250785;-0.056906164;-0.04920507;-0.040537663;0.010938409;0.024694065;-0.17679384;-0.06642716;-0.104047894;-0.18451394;-0.053175315;0.1021726;0.050812427;0.012523401;0.0408966;0.09997096;0.046843223;0.14759862;0.04816068;0.16214462;-0.057073373;-0.08163913;0.016932009;-0.10430475;-0.120605685;-0.11135181;-0.06169318;-0.008567406;-0.0141905295;-0.12174288;0.09655954;-0.03454339;0.067286216;0.082053;-0.100486256;0.14161865;-0.020194622;-0.17929257;-0.10518015;-0.070666045;-0.035289507;0.032007582;-0.0062216315;-0.044051282;-0.015475133;-0.04856055;-0.019202432