-0.13344082;-0.08648565;-0.11365512;-0.13926864;-0.108362794;0.2401072;0.13009743;0.20881078;0.11889509;-0.008708725;0.08841678;-0.0019576887;0.1201949;0.27511403;0.20425655;-0.04641825;-0.13751617;-0.07083525;-0.074471556;-0.030036485;-0.070814416;-0.1670113;-0.090455815;-0.14054537;0.22357705;0.07675949;0.13870281;0.11031264;0.19849822;0.16990921;0.033497594;0.046636894;-0.13811947;0.05719692;-0.14750865;-0.13581708;0.10133576;-0.050589528;-0.086705014;0.24108851;0.25248474;-0.040546007;0.18479323;0.20709717;0.0005758021;0.11560247;0.16928314;0.25854933;-0.13176152;-0.10062721;0.13618854;-0.31761757;0.029613635;0.07431864;0.24590169;0.18697606;-0.13103846;-0.08321193;0.0381099;-0.18878569;-0.045843285;0.16920614;0.15251604;0.18232495;0.21367994;0.065759994;0.10865138;0.08504996;0.04420865;-0.010719926;0.0033886177;-0.041383207;0.09494567;0.15636793;0.18182847;0.13155743;0.04848564;-0.057425093;-0.09454263;-0.20482373;-0.24274996;0.10538474;0.056328073;0.050167676;0.2232054;-0.06848338;-0.23917718;0.18130568;0.14691903;-0.122258976;-0.0560021;-0.17345066;0.13521734;-0.037129335;-0.0808828;0.2915632;0.11112114;-0.086665876;0.21677713;-0.050645415;0.17028871;-0.04626557;0.1672631;0.008366692;-0.07244669;0.098697215;-0.08881746;-0.16457856;0.08322456;-0.23404817;-0.24382779;0.027226584;0.07537666;0.13138686;0.23041679;0.2598104;0.17341003;0.06986376;0.009556428;-0.13496509;0.22845915;0.12536722;-0.17720978;0.23164836;0.22608702;0.028436547;-0.14852813;-0.06330499;0.22804257;-0.18709622;-0.031053333;0.18189368;-0.10539848;0.10893786;0.03120033;0.07667589;0.04258145;-0.063837446;0.13236372;0.08814385;-0.1648587;0.25075108;0.068945915;0.02829427;0.2105543;-0.14702663;-0.33440292;0.15736547;0.03821056;0.04278875;0.08281955;0.23369691;0.023310278;0.09948805;-0.06389846;0.13803492;-0.12212438;-0.065970995;0.2589044;-0.019804055;0.15025713;0.26753408;0.17554416;0.1256544;0.13457568;-0.16807167;0.12935838;0.15603128;-0.31748533;-0.1687576;0.13331804;-0.0025231766;-0.20096344;-0.08626761;-0.021902394;-0.014087178;0.15406121;0.053089082;0.10318243;0.31785393;-0.17349675;-0.012585921;0.07408107;0.19978963;0.08684934;0.25149205;0.109278;-0.024913201;-0.04474675;0.07274027;0.0627527;0.10402617;0.1659678;0.20418252;0.17672549;-0.0136705935;-0.15960266;0.076511055;0.1283629;0.18066378;0.114399455;-0.04584739;-0.06698355;0.065385506;0.08595416;0.10206708;-0.1525853;0.24710478;0.22932614;0.2250243;0.07170021;0.11417825;-0.065655135;-0.04664875;-0.18179421;-0.17642598;-0.15011686;0.15568699;0.0832368;-0.16252583;0.0055147563;0.17754722;-0.21159941;-0.056864783;0.17104661;0.096888356;-0.21286042;-0.11973105;0.13712557;0.14714599;0.16201171;0.19989593;0.23813234;-0.06986076;0.013662443;-0.008919957;0.04744622;0.027794197;0.13416623;0.265483;-0.035551492;0.15472801;-0.100152254;-0.2835018;-0.054036234;0.21561274;-0.17400904;0.045563232;0.19582278;-0.0056355684;0.07813899;0.08780106;0.13454631;0.13796277;-0.12724778;-0.008271492;0.13972193;0.07422049;-0.03270901;0.12126237;0.15996994;-0.35373542;-0.118067056;-0.025648085;-0.14571589;0.01886943;0.16694777;0.001276428;0.22534607;0.17624483;0.0061263377;0.1117794;-0.13202633;-0.05562544;-0.0621912;0.10213819;0.13768813;0.2501133;0.15876028;-0.08393469;0.10883326;-0.17666951;0.04188252;0.019743584;0.26097655;-0.19734697;0.03279582;0.28371617