0.20673223;0.26272717;0.22189626;0.17453618;0.028178388;-0.40912753;-0.5007633;-0.3544141;-0.1560874;-0.30283648;0.08791916;0.21951357;-0.0011790558;0.23411924;-0.0408516;0.22788633;0.019007234;-0.16955923;0.14291684;0.22196566;-0.28003177;-0.009088667;0.1704304;-0.08329288;-0.21640687;0.27969527;0.07870408;0.32767597;0.08602452;-0.54006064;0.17401673;0.013983576;-0.4358702;0.05385535;0.013731361;-0.31322885;-0.3480618;0.07830774;0.22845437;0.16744162;0.26081166;-0.14640209;0.19944715;-0.14378636;-0.11611992;-0.50031966;-0.6569906;-0.34332287;0.2154324;-0.18957485;-0.78300214;0.42882878;0.5233567;-0.15761705;-0.03373344;-0.046705905;0.22113024;0.033284087;0.3060143;0.31935933;-0.47907156;-0.43272182;-0.333496;0.48162186;-0.41923714;-0.46693453;0.43361336;-0.986264;0.32072514;-0.37378377;-0.6047536;0.44693694;-0.13084231;0.008496064;-0.10218421;-0.06028228;0.07876779;-0.0077297124;-0.026430285;-0.11585751;-0.08364602;0.122461356;-0.20787461;-0.34508294;0.03314581;0.27204898;0.17235138;-0.11796899;0.24430665;-0.074884176;0.17758203;0.09083655;-0.39884755;0.2259438;0.046974905;-0.38360366;0.28478208;-0.1199559;-0.3688893;-0.3368281;-0.19731268;0.18291542;-0.23511676;0.31148562;0.2720844;0.2065988;0.22136876;-0.24049704;0.11568259;0.24909915;0.26372424;-0.2927071;0.21026552;0.20922844;-0.60081756;-0.40734592;-0.48903468;0.017902805;0.29050162;0.44037914;-0.3070652;0.17007187;-0.079763815;-0.77060044;-0.42468587;-0.8012687;-0.44298747;-0.068208866;0.037854396;-0.14708306;-0.115371615;-0.1612199;0.5270501;0.23553517;-0.116262324;-0.451818;0.18709134;0.26248968;-0.5411994;0.18955688;0.1330197;-0.57749665;-0.05656739;0.15883072;-0.45192912;0.08211768;0.28521806;-0.31462878;-0.25590605;0.22776504;-0.089306675;-0.15937929;0.20266223;-0.52466273;-0.4249215;0.0010675641;-0.47096607;0.07039486;0.12490176;-0.23974636;0.20675509;0.31334555;0.21455562;0.2650205;-0.12034918;-0.22177438;0.0934831;0.04215635;-0.15715964;0.15322529;0.13526735;-0.16021387;0.23052947;0.3552825;0.0969009;0.088085815;-0.17382559;0.0563645;-0.20150383;-0.32167566;0.19335444;-0.36443424;-0.06851324;0.29229838;-0.162739;-0.32212055;0.22010975;0.27018487;0.18003769;0.052029636;0.022399273;0.087041296;0.18368122;0.119550966;-0.032393154;-0.1812294;-0.017698912;0.20410383;-0.12718154;0.22407766;0.5876822;-0.6907251;-0.30379313;0.22121814;-0.2678988;-0.40053132;-0.5978261;-0.04714655;-0.5293887;-0.34357247;0.17898664;0.18963479;0.29908052;0.0035687552;0.2797236;0.05644214;-0.09291003;0.07736678;0.14952233;-0.31579542;0.025009958;0.12431081;-0.32995573;0.13934778;0.20614007;0.2293463;0.061488427;-0.27707082;-0.00083655096;0.33451664;-0.23937559;-0.30327186;0.30617124;0.17059018;-0.8152803;-0.50988793;-0.6530833;-0.032391436;0.064258076;-0.11591107;0.32380936;0.48451737;0.122550376;-0.56793326;-0.78427076;-0.4083145;-0.4937583;-0.051799223;0.2238924;-0.74312896;0.05452514;0.4749406;0.16919278;-0.09358326;-0.47538927;0.3561949;0.10759057;-0.37020797;0.08364357;0.28150812;0.020737983;-0.07809147;0.24312836;0.15834454;0.29003814;0.33584496;-0.14519309;-0.30325902;-0.5000215;-0.5384746;-0.035453524;0.036475874;0.04611177;0.051640965;0.17716;0.073099434;0.12742518;-0.07515793;-0.076235846;0.11164446;0.49719337;0.34687373;-0.3232823;-0.098718025;-0.5916867;-0.6522235;-0.38436815;-0.44304138;